Language model created by QuickLM on Mon Dec 28 11:14:34 EST 2020
Copyright (c) 1996-2010 Carnegie Mellon University and Alexander I. Rudnicky

The model is in standard ARPA format, designed by Doug Paul while he was at MITRE.

The code that was used to produce this language model is available in Open Source.
Please visit http://www.speech.cs.cmu.edu/tools/ for more information

The (fixed) discount mass is 0.5. The backoffs are computed using the ratio method.
This model based on a corpus of 89 sentences and 91 words

\data\
ngram 1=91
ngram 2=178
ngram 3=89

\1-grams:
-0.7782 </s> -0.3010
-0.7782 <s> -0.2218
-2.7275 AAM -0.2218
-2.7275 AAT -0.2218
-2.7275 ANGUR -0.2218
-2.7275 APEL -0.2218
-2.7275 ASHA -0.2218
-2.7275 BABA -0.2218
-2.7275 BARISHAL -0.2218
-2.7275 BATI -0.2218
-2.7275 BHAI -0.2218
-2.7275 BISHSHOBIDDALOY -0.2218
-2.7275 BIVAG -0.2218
-2.7275 BOCHOR -0.2218
-2.7275 BOI -0.2218
-2.7275 BON -0.2218
-2.7275 BONDHU -0.2218
-2.7275 BRIHOSPOTIBAR -0.2218
-2.7275 BUDHBAR -0.2218
-2.7275 CACA -0.2218
-2.7275 CHA -0.2218
-2.7275 CHAR -0.2218
-2.7275 CHATTROGRAM -0.2218
-2.7275 CHOY -0.2218
-2.7275 COFFEE -0.2218
-2.7275 COLLAGE -0.2218
-2.7275 COMPUTER -0.2218
-2.7275 CRICKET -0.2218
-2.7275 DAAL -0.2218
-2.7275 DEKHA -0.2218
-2.7275 DHAKA -0.2218
-2.7275 DHONNOBAD -0.2218
-2.7275 DIN -0.2218
-2.7275 DOSH -0.2218
-2.7275 DUDH -0.2218
-2.7275 DUI -0.2218
-2.7275 EEK -0.2218
-2.7275 FOOTBALL -0.2218
-2.7275 FUFU -0.2218
-2.7275 GHUMANO -0.2218
-2.7275 HATA -0.2218
-2.7275 HELLO -0.2218
-2.7275 HOLUD -0.2218
-2.7275 INTERNET -0.2218
-2.7275 JAWA -0.2218
-2.7275 KAAZ -0.2218
-2.7275 KALO -0.2218
-2.7275 KATHAL -0.2218
-2.7275 KHALA -0.2218
-2.7275 KHULNA -0.2218
-2.7275 KOLA -0.2218
-2.7275 KOLOM -0.2218
-2.7275 KOMOLA -0.2218
-2.7275 LAAL -0.2218
-2.7275 MA -0.2218
-2.7275 MAACH -0.2218
-2.7275 MANGSHO -0.2218
-2.7275 MASH -0.2218
-2.7275 MAYMANSINGH -0.2218
-2.7275 MISHTI -0.2218
-2.7275 MOBILE -0.2218
-2.7275 MONGOLBAR -0.2218
-2.7275 MURGI -0.2218
-2.7275 NEEL -0.2218
-2.7275 NOY -0.2218
-2.7275 OFFICE -0.2218
-2.7275 PAANI -0.2218
-2.7275 PACH -0.2218
-2.7275 PAKHA -0.2218
-2.7275 PEPE -0.2218
-2.7275 PORIBAR -0.2218
-2.7275 RAJSHAHI -0.2218
-2.7275 RANGPUR -0.2218
-2.7275 ROBIBAR -0.2218
-2.7275 RUTI -0.2218
-2.7275 SCHOOL -0.2218
-2.7275 SHADA -0.2218
-2.7275 SHAMI -0.2218
-2.7275 SHAT -0.2218
-2.7275 SHOBJI -0.2218
-2.7275 SHOBUJ -0.2218
-2.7275 SHOMBAR -0.2218
-2.7275 SHONIBAR -0.2218
-2.7275 SHOPTAHO -0.2218
-2.7275 SHUKROBAR -0.2218
-2.7275 SHUNNO -0.2218
-2.7275 STRI -0.2218
-2.7275 SYLLET -0.2218
-2.7275 TELEVISION -0.2218
-2.7275 TIN -0.2218
-2.7275 VAAT -0.2218

\2-grams:
-2.2504 <s> AAM 0.0000
-2.2504 <s> AAT 0.0000
-2.2504 <s> ANGUR 0.0000
-2.2504 <s> APEL 0.0000
-2.2504 <s> ASHA 0.0000
-2.2504 <s> BABA 0.0000
-2.2504 <s> BARISHAL 0.0000
-2.2504 <s> BATI 0.0000
-2.2504 <s> BHAI 0.0000
-2.2504 <s> BISHSHOBIDDALOY 0.0000
-2.2504 <s> BIVAG 0.0000
-2.2504 <s> BOCHOR 0.0000
-2.2504 <s> BOI 0.0000
-2.2504 <s> BON 0.0000
-2.2504 <s> BONDHU 0.0000
-2.2504 <s> BRIHOSPOTIBAR 0.0000
-2.2504 <s> BUDHBAR 0.0000
-2.2504 <s> CACA 0.0000
-2.2504 <s> CHA 0.0000
-2.2504 <s> CHAR 0.0000
-2.2504 <s> CHATTROGRAM 0.0000
-2.2504 <s> CHOY 0.0000
-2.2504 <s> COFFEE 0.0000
-2.2504 <s> COLLAGE 0.0000
-2.2504 <s> COMPUTER 0.0000
-2.2504 <s> CRICKET 0.0000
-2.2504 <s> DAAL 0.0000
-2.2504 <s> DEKHA 0.0000
-2.2504 <s> DHAKA 0.0000
-2.2504 <s> DHONNOBAD 0.0000
-2.2504 <s> DIN 0.0000
-2.2504 <s> DOSH 0.0000
-2.2504 <s> DUDH 0.0000
-2.2504 <s> DUI 0.0000
-2.2504 <s> EEK 0.0000
-2.2504 <s> FOOTBALL 0.0000
-2.2504 <s> FUFU 0.0000
-2.2504 <s> GHUMANO 0.0000
-2.2504 <s> HATA 0.0000
-2.2504 <s> HELLO 0.0000
-2.2504 <s> HOLUD 0.0000
-2.2504 <s> INTERNET 0.0000
-2.2504 <s> JAWA 0.0000
-2.2504 <s> KAAZ 0.0000
-2.2504 <s> KALO 0.0000
-2.2504 <s> KATHAL 0.0000
-2.2504 <s> KHALA 0.0000
-2.2504 <s> KHULNA 0.0000
-2.2504 <s> KOLA 0.0000
-2.2504 <s> KOLOM 0.0000
-2.2504 <s> KOMOLA 0.0000
-2.2504 <s> LAAL 0.0000
-2.2504 <s> MA 0.0000
-2.2504 <s> MAACH 0.0000
-2.2504 <s> MANGSHO 0.0000
-2.2504 <s> MASH 0.0000
-2.2504 <s> MAYMANSINGH 0.0000
-2.2504 <s> MISHTI 0.0000
-2.2504 <s> MOBILE 0.0000
-2.2504 <s> MONGOLBAR 0.0000
-2.2504 <s> MURGI 0.0000
-2.2504 <s> NEEL 0.0000
-2.2504 <s> NOY 0.0000
-2.2504 <s> OFFICE 0.0000
-2.2504 <s> PAANI 0.0000
-2.2504 <s> PACH 0.0000
-2.2504 <s> PAKHA 0.0000
-2.2504 <s> PEPE 0.0000
-2.2504 <s> PORIBAR 0.0000
-2.2504 <s> RAJSHAHI 0.0000
-2.2504 <s> RANGPUR 0.0000
-2.2504 <s> ROBIBAR 0.0000
-2.2504 <s> RUTI 0.0000
-2.2504 <s> SCHOOL 0.0000
-2.2504 <s> SHADA 0.0000
-2.2504 <s> SHAMI 0.0000
-2.2504 <s> SHAT 0.0000
-2.2504 <s> SHOBJI 0.0000
-2.2504 <s> SHOBUJ 0.0000
-2.2504 <s> SHOMBAR 0.0000
-2.2504 <s> SHONIBAR 0.0000
-2.2504 <s> SHOPTAHO 0.0000
-2.2504 <s> SHUKROBAR 0.0000
-2.2504 <s> SHUNNO 0.0000
-2.2504 <s> STRI 0.0000
-2.2504 <s> SYLLET 0.0000
-2.2504 <s> TELEVISION 0.0000
-2.2504 <s> TIN 0.0000
-2.2504 <s> VAAT 0.0000
-0.3010 AAM </s> -0.3010
-0.3010 AAT </s> -0.3010
-0.3010 ANGUR </s> -0.3010
-0.3010 APEL </s> -0.3010
-0.3010 ASHA </s> -0.3010
-0.3010 BABA </s> -0.3010
-0.3010 BARISHAL </s> -0.3010
-0.3010 BATI </s> -0.3010
-0.3010 BHAI </s> -0.3010
-0.3010 BISHSHOBIDDALOY </s> -0.3010
-0.3010 BIVAG </s> -0.3010
-0.3010 BOCHOR </s> -0.3010
-0.3010 BOI </s> -0.3010
-0.3010 BON </s> -0.3010
-0.3010 BONDHU </s> -0.3010
-0.3010 BRIHOSPOTIBAR </s> -0.3010
-0.3010 BUDHBAR </s> -0.3010
-0.3010 CACA </s> -0.3010
-0.3010 CHA </s> -0.3010
-0.3010 CHAR </s> -0.3010
-0.3010 CHATTROGRAM </s> -0.3010
-0.3010 CHOY </s> -0.3010
-0.3010 COFFEE </s> -0.3010
-0.3010 COLLAGE </s> -0.3010
-0.3010 COMPUTER </s> -0.3010
-0.3010 CRICKET </s> -0.3010
-0.3010 DAAL </s> -0.3010
-0.3010 DEKHA </s> -0.3010
-0.3010 DHAKA </s> -0.3010
-0.3010 DHONNOBAD </s> -0.3010
-0.3010 DIN </s> -0.3010
-0.3010 DOSH </s> -0.3010
-0.3010 DUDH </s> -0.3010
-0.3010 DUI </s> -0.3010
-0.3010 EEK </s> -0.3010
-0.3010 FOOTBALL </s> -0.3010
-0.3010 FUFU </s> -0.3010
-0.3010 GHUMANO </s> -0.3010
-0.3010 HATA </s> -0.3010
-0.3010 HELLO </s> -0.3010
-0.3010 HOLUD </s> -0.3010
-0.3010 INTERNET </s> -0.3010
-0.3010 JAWA </s> -0.3010
-0.3010 KAAZ </s> -0.3010
-0.3010 KALO </s> -0.3010
-0.3010 KATHAL </s> -0.3010
-0.3010 KHALA </s> -0.3010
-0.3010 KHULNA </s> -0.3010
-0.3010 KOLA </s> -0.3010
-0.3010 KOLOM </s> -0.3010
-0.3010 KOMOLA </s> -0.3010
-0.3010 LAAL </s> -0.3010
-0.3010 MA </s> -0.3010
-0.3010 MAACH </s> -0.3010
-0.3010 MANGSHO </s> -0.3010
-0.3010 MASH </s> -0.3010
-0.3010 MAYMANSINGH </s> -0.3010
-0.3010 MISHTI </s> -0.3010
-0.3010 MOBILE </s> -0.3010
-0.3010 MONGOLBAR </s> -0.3010
-0.3010 MURGI </s> -0.3010
-0.3010 NEEL </s> -0.3010
-0.3010 NOY </s> -0.3010
-0.3010 OFFICE </s> -0.3010
-0.3010 PAANI </s> -0.3010
-0.3010 PACH </s> -0.3010
-0.3010 PAKHA </s> -0.3010
-0.3010 PEPE </s> -0.3010
-0.3010 PORIBAR </s> -0.3010
-0.3010 RAJSHAHI </s> -0.3010
-0.3010 RANGPUR </s> -0.3010
-0.3010 ROBIBAR </s> -0.3010
-0.3010 RUTI </s> -0.3010
-0.3010 SCHOOL </s> -0.3010
-0.3010 SHADA </s> -0.3010
-0.3010 SHAMI </s> -0.3010
-0.3010 SHAT </s> -0.3010
-0.3010 SHOBJI </s> -0.3010
-0.3010 SHOBUJ </s> -0.3010
-0.3010 SHOMBAR </s> -0.3010
-0.3010 SHONIBAR </s> -0.3010
-0.3010 SHOPTAHO </s> -0.3010
-0.3010 SHUKROBAR </s> -0.3010
-0.3010 SHUNNO </s> -0.3010
-0.3010 STRI </s> -0.3010
-0.3010 SYLLET </s> -0.3010
-0.3010 TELEVISION </s> -0.3010
-0.3010 TIN </s> -0.3010
-0.3010 VAAT </s> -0.3010

\3-grams:
-0.3010 <s> AAM </s>
-0.3010 <s> AAT </s>
-0.3010 <s> ANGUR </s>
-0.3010 <s> APEL </s>
-0.3010 <s> ASHA </s>
-0.3010 <s> BABA </s>
-0.3010 <s> BARISHAL </s>
-0.3010 <s> BATI </s>
-0.3010 <s> BHAI </s>
-0.3010 <s> BISHSHOBIDDALOY </s>
-0.3010 <s> BIVAG </s>
-0.3010 <s> BOCHOR </s>
-0.3010 <s> BOI </s>
-0.3010 <s> BON </s>
-0.3010 <s> BONDHU </s>
-0.3010 <s> BRIHOSPOTIBAR </s>
-0.3010 <s> BUDHBAR </s>
-0.3010 <s> CACA </s>
-0.3010 <s> CHA </s>
-0.3010 <s> CHAR </s>
-0.3010 <s> CHATTROGRAM </s>
-0.3010 <s> CHOY </s>
-0.3010 <s> COFFEE </s>
-0.3010 <s> COLLAGE </s>
-0.3010 <s> COMPUTER </s>
-0.3010 <s> CRICKET </s>
-0.3010 <s> DAAL </s>
-0.3010 <s> DEKHA </s>
-0.3010 <s> DHAKA </s>
-0.3010 <s> DHONNOBAD </s>
-0.3010 <s> DIN </s>
-0.3010 <s> DOSH </s>
-0.3010 <s> DUDH </s>
-0.3010 <s> DUI </s>
-0.3010 <s> EEK </s>
-0.3010 <s> FOOTBALL </s>
-0.3010 <s> FUFU </s>
-0.3010 <s> GHUMANO </s>
-0.3010 <s> HATA </s>
-0.3010 <s> HELLO </s>
-0.3010 <s> HOLUD </s>
-0.3010 <s> INTERNET </s>
-0.3010 <s> JAWA </s>
-0.3010 <s> KAAZ </s>
-0.3010 <s> KALO </s>
-0.3010 <s> KATHAL </s>
-0.3010 <s> KHALA </s>
-0.3010 <s> KHULNA </s>
-0.3010 <s> KOLA </s>
-0.3010 <s> KOLOM </s>
-0.3010 <s> KOMOLA </s>
-0.3010 <s> LAAL </s>
-0.3010 <s> MA </s>
-0.3010 <s> MAACH </s>
-0.3010 <s> MANGSHO </s>
-0.3010 <s> MASH </s>
-0.3010 <s> MAYMANSINGH </s>
-0.3010 <s> MISHTI </s>
-0.3010 <s> MOBILE </s>
-0.3010 <s> MONGOLBAR </s>
-0.3010 <s> MURGI </s>
-0.3010 <s> NEEL </s>
-0.3010 <s> NOY </s>
-0.3010 <s> OFFICE </s>
-0.3010 <s> PAANI </s>
-0.3010 <s> PACH </s>
-0.3010 <s> PAKHA </s>
-0.3010 <s> PEPE </s>
-0.3010 <s> PORIBAR </s>
-0.3010 <s> RAJSHAHI </s>
-0.3010 <s> RANGPUR </s>
-0.3010 <s> ROBIBAR </s>
-0.3010 <s> RUTI </s>
-0.3010 <s> SCHOOL </s>
-0.3010 <s> SHADA </s>
-0.3010 <s> SHAMI </s>
-0.3010 <s> SHAT </s>
-0.3010 <s> SHOBJI </s>
-0.3010 <s> SHOBUJ </s>
-0.3010 <s> SHOMBAR </s>
-0.3010 <s> SHONIBAR </s>
-0.3010 <s> SHOPTAHO </s>
-0.3010 <s> SHUKROBAR </s>
-0.3010 <s> SHUNNO </s>
-0.3010 <s> STRI </s>
-0.3010 <s> SYLLET </s>
-0.3010 <s> TELEVISION </s>
-0.3010 <s> TIN </s>
-0.3010 <s> VAAT </s>

\end\